<?xml version="1.0"?>
<opencv_storage>
<cascade>
  <stageType>BOOST</stageType>
  <featureType>LBP</featureType>
  <height>24</height>
  <width>24</width>
  <stageParams>
    <boostType>GAB</boostType>
    <minHitRate>9.9500000476837158e-01</minHitRate>
    <maxFalseAlarm>3.0000001192092896e-01</maxFalseAlarm>
    <weightTrimRate>9.4999999999999996e-01</weightTrimRate>
    <maxDepth>1</maxDepth>
    <maxWeakCount>100</maxWeakCount></stageParams>
  <featureParams>
    <maxCatCount>256</maxCatCount>
    <featSize>1</featSize></featureParams>
  <stageNum>9</stageNum>
  <stages>
    <!-- stage 0 -->
    <_>
      <maxWeakCount>2</maxWeakCount>
      <stageThreshold>-1.3647216558456421e-01</stageThreshold>
      <weakClassifiers>
        <_>
          <internalNodes>
            0 -1 4 -44567553 -107756623 -1887321697 -39878389 -234845697
            -201686903 -41031429 -8931533</internalNodes>
          <leafValues>
            -9.9298244714736938e-01 8.7061995267868042e-01</leafValues></_>
        <_>
          <internalNodes>
            0 -1 5 -75500561 -799555121 -2004676595 -211824957
            -1030760209 -1069382014 -749885009 2146432767</internalNodes>
          <leafValues>
            -1. 8.5651028156280518e-01</leafValues></_></weakClassifiers></_>
    <!-- stage 1 -->
    <_>
      <maxWeakCount>2</maxWeakCount>
      <stageThreshold>-1.5326814353466034e-01</stageThreshold>
      <weakClassifiers>
        <_>
          <internalNodes>
            0 -1 2 -4202497 -46666353 1661178271 -35788773 -98913281
            -340065777 -9768261 -6344001</internalNodes>
          <leafValues>
            -9.7231835126876831e-01 8.8300836086273193e-01</leafValues></_>
        <_>
          <internalNodes>
            0 -1 16 -738722817 -178920563 -1660861029 -751831201
            -620169217 -911568469 -116661317 -922746945</internalNodes>
          <leafValues>
            -9.9768674373626709e-01 8.1905019283294678e-01</leafValues></_></weakClassifiers></_>
    <!-- stage 2 -->
    <_>
      <maxWeakCount>2</maxWeakCount>
      <stageThreshold>-1.3338822126388550e-01</stageThreshold>
      <weakClassifiers>
        <_>
          <internalNodes>
            0 -1 17 -168297505 -251559221 4554899 -7880485 -1056075377
            -2029903837 -514858865 2146434015</internalNodes>
          <leafValues>
            -9.9525505304336548e-01 8.1723237037658691e-01</leafValues></_>
        <_>
          <internalNodes>
            0 -1 8 -237914625 -573243177 -1828513473 -539018277
            -1736265793 -33478633 -1291740209 -79197457</internalNodes>
          <leafValues>
            -9.5062059164047241e-01 9.1927069425582886e-01</leafValues></_></weakClassifiers></_>
    <!-- stage 3 -->
    <_>
      <maxWeakCount>2</maxWeakCount>
      <stageThreshold>-2.8178322315216064e-01</stageThreshold>
      <weakClassifiers>
        <_>
          <internalNodes>
            0 -1 10 -48759297 -69873185 -242918913 -44950786 -744423685
            -83262803 -1064777233 -11278353</internalNodes>
          <leafValues>
            -9.9514561891555786e-01 7.3134326934814453e-01</leafValues></_>
        <_>
          <internalNodes>
            0 -1 6 -750429697 -115924717 286359775 -35676931 -131949825
            -340031346 -393495637 2134879131</internalNodes>
          <leafValues>
            -1. 7.1336239576339722e-01</leafValues></_></weakClassifiers></_>
    <!-- stage 4 -->
    <_>
      <maxWeakCount>2</maxWeakCount>
      <stageThreshold>-2.1389247477054596e-01</stageThreshold>
      <weakClassifiers>
        <_>
          <internalNodes>
            0 -1 11 1898050037 1601524023 -1621516897 -39874155
            -2012167425 -98483525 -319643649 -17665</internalNodes>
          <leafValues>
            -9.6239715814590454e-01 7.8133332729339600e-01</leafValues></_>
        <_>
          <internalNodes>
            0 -1 3 -70262785 -706759721 1369041739 -607661849 -18875393
            -103906561 -17966081 -8913129</internalNodes>
          <leafValues>
            -9.9522578716278076e-01 7.6457059383392334e-01</leafValues></_></weakClassifiers></_>
    <!-- stage 5 -->
    <_>
      <maxWeakCount>2</maxWeakCount>
      <stageThreshold>-2.4464537203311920e-01</stageThreshold>
      <weakClassifiers>
        <_>
          <internalNodes>
            0 -1 12 -572786689 -69920325 -1818520262 -551884662
            -1566393365 -1156340359 -1425884164 -5271554</internalNodes>
          <leafValues>
            -9.9257427453994751e-01 6.6028708219528198e-01</leafValues></_>
        <_>
          <internalNodes>
            0 -1 15 -681575425 -404768457 -1073364921 -1223322017
            -528226485 -1476198101 -241834373 -2106433</internalNodes>
          <leafValues>
            -9.0493243932723999e-01 7.7042871713638306e-01</leafValues></_></weakClassifiers></_>
    <!-- stage 6 -->
    <_>
      <maxWeakCount>2</maxWeakCount>
      <stageThreshold>-1.7650707066059113e-01</stageThreshold>
      <weakClassifiers>
        <_>
          <internalNodes>
            0 -1 14 -23863809 -683945071 277434859 -707710882 2089268219
            -1090338566 -274013201 -1073771781</internalNodes>
          <leafValues>
            -9.0443688631057739e-01 7.7521616220474243e-01</leafValues></_>
        <_>
          <internalNodes>
            0 -1 9 -2099201 -213179169 -2126490543 432735171 -566423041
            -639692581 -356308245 -5121</internalNodes>
          <leafValues>
            -9.5172321796417236e-01 7.5840890407562256e-01</leafValues></_></weakClassifiers></_>
    <!-- stage 7 -->
    <_>
      <maxWeakCount>2</maxWeakCount>
      <stageThreshold>-2.1602444350719452e-01</stageThreshold>
      <weakClassifiers>
        <_>
          <internalNodes>
            0 -1 1 -7348257 -7126777 -1123951329 -15263021 -443833857
            -238817141 -1953636929 -4469089</internalNodes>
          <leafValues>
            -8.8208615779876709e-01 7.3255813121795654e-01</leafValues></_>
        <_>
          <internalNodes>
            0 -1 13 -8661001 -786714497 -753437513 -536923883 -139854353
            -1432636193 -874783265 -1145062401</internalNodes>
          <leafValues>
            -9.2831677198410034e-01 6.6606169939041138e-01</leafValues></_></weakClassifiers></_>
    <!-- stage 8 -->
    <_>
      <maxWeakCount>2</maxWeakCount>
      <stageThreshold>-3.0239349603652954e-01</stageThreshold>
      <weakClassifiers>
        <_>
          <internalNodes>
            0 -1 7 -112852993 -541989249 -1014574397 -679161585
            -314314393 -469372042 -321841153 -33556737</internalNodes>
          <leafValues>
            -9.0442889928817749e-01 6.7934781312942505e-01</leafValues></_>
        <_>
          <internalNodes>
            0 -1 0 -100665345 -73707453 -235669755 -70784381 -526408721
            -1064992120 -291242449 2138562555</internalNodes>
          <leafValues>
            -9.8174130916595459e-01 6.0846006870269775e-01</leafValues></_></weakClassifiers></_></stages>
  <features>
    <_>
      <rect>
        0 5 1 3</rect></_>
    <_>
      <rect>
        0 5 8 3</rect></_>
    <_>
      <rect>
        0 8 5 4</rect></_>
    <_>
      <rect>
        1 0 3 3</rect></_>
    <_>
      <rect>
        1 0 4 3</rect></_>
    <_>
      <rect>
        1 1 1 3</rect></_>
    <_>
      <rect>
        2 1 3 1</rect></_>
    <_>
      <rect>
        2 6 3 5</rect></_>
    <_>
      <rect>
        2 7 4 2</rect></_>
    <_>
      <rect>
        6 7 2 5</rect></_>
    <_>
      <rect>
        7 10 2 1</rect></_>
    <_>
      <rect>
        7 12 3 1</rect></_>
    <_>
      <rect>
        9 10 2 1</rect></_>
    <_>
      <rect>
        11 7 4 4</rect></_>
    <_>
      <rect>
        11 11 2 1</rect></_>
    <_>
      <rect>
        12 7 3 5</rect></_>
    <_>
      <rect>
        14 0 3 3</rect></_>
    <_>
      <rect>
        21 2 1 3</rect></_></features></cascade>
</opencv_storage>
