<?xml version="1.0"?>
<opencv_storage>
<cascade>
  <stageType>BOOST</stageType>
  <featureType>LBP</featureType>
  <height>24</height>
  <width>24</width>
  <stageParams>
    <boostType>GAB</boostType>
    <minHitRate>9.9500000476837158e-01</minHitRate>
    <maxFalseAlarm>3.0000001192092896e-01</maxFalseAlarm>
    <weightTrimRate>9.4999999999999996e-01</weightTrimRate>
    <maxDepth>1</maxDepth>
    <maxWeakCount>100</maxWeakCount></stageParams>
  <featureParams>
    <maxCatCount>256</maxCatCount>
    <featSize>1</featSize></featureParams>
  <stageNum>7</stageNum>
  <stages>
    <!-- stage 0 -->
    <_>
      <maxWeakCount>1</maxWeakCount>
      <stageThreshold>8.8679248094558716e-01</stageThreshold>
      <weakClassifiers>
        <_>
          <internalNodes>
            0 -1 9 -922236977 -573208133 -575041537 -570586225
            -1031024645 -68646737 -845952001 -1062213</internalNodes>
          <leafValues>
            -1. 8.8679248094558716e-01</leafValues></_></weakClassifiers></_>
    <!-- stage 1 -->
    <_>
      <maxWeakCount>2</maxWeakCount>
      <stageThreshold>-1.5654358267784119e-01</stageThreshold>
      <weakClassifiers>
        <_>
          <internalNodes>
            0 -1 3 -35913729 -605690989 -183249721 -13119141 -779289665
            -73039245 -309601345 2147483627</internalNodes>
          <leafValues>
            -9.9064326286315918e-01 8.6522912979125977e-01</leafValues></_>
        <_>
          <internalNodes>
            0 -1 12 -753796609 -34507759 -540733121 -36339445 -528425989
            -71720741 -593974309 2142216907</internalNodes>
          <leafValues>
            -9.9767237901687622e-01 8.3409970998764038e-01</leafValues></_></weakClassifiers></_>
    <!-- stage 2 -->
    <_>
      <maxWeakCount>2</maxWeakCount>
      <stageThreshold>-1.3751213252544403e-01</stageThreshold>
      <weakClassifiers>
        <_>
          <internalNodes>
            0 -1 10 -209718789 -103165493 -783936689 -543178529
            -909520677 -612187990 -796144993 -201329969</internalNodes>
          <leafValues>
            -9.7192984819412231e-01 8.2210242748260498e-01</leafValues></_>
        <_>
          <internalNodes>
            0 -1 11 -136970243 -620142571 1661989279 -1211119061
            -384834645 -385756342 -844463477 -3165233</internalNodes>
          <leafValues>
            -9.5679926872253418e-01 8.3441770076751709e-01</leafValues></_></weakClassifiers></_>
    <!-- stage 3 -->
    <_>
      <maxWeakCount>2</maxWeakCount>
      <stageThreshold>-1.5644194185733795e-01</stageThreshold>
      <weakClassifiers>
        <_>
          <internalNodes>
            0 -1 0 -675283457 -145763433 -330870437 -45094149 -454823489
            -295772093 -159677761 -9961869</internalNodes>
          <leafValues>
            -9.5161288976669312e-01 8.3798885345458984e-01</leafValues></_>
        <_>
          <internalNodes>
            0 -1 4 -539765281 -581078533 490793311 -15526819 -377251333
            -1147491845 -108933381 2147077099</internalNodes>
          <leafValues>
            -9.9767506122589111e-01 7.9517096281051636e-01</leafValues></_></weakClassifiers></_>
    <!-- stage 4 -->
    <_>
      <maxWeakCount>2</maxWeakCount>
      <stageThreshold>-2.2135719656944275e-01</stageThreshold>
      <weakClassifiers>
        <_>
          <internalNodes>
            0 -1 2 -603990017 -787248833 -1143630381 -235305825
            -254935105 -2127389567 -23468097 -8916107</internalNodes>
          <leafValues>
            -9.9513971805572510e-01 7.2704714536666870e-01</leafValues></_>
        <_>
          <internalNodes>
            0 -1 8 -102825985 -10513507 -704654945 -172127613 -204222257
            -204779387 -55583281 -1057</internalNodes>
          <leafValues>
            -9.4840431213378906e-01 8.2378613948822021e-01</leafValues></_></weakClassifiers></_>
    <!-- stage 5 -->
    <_>
      <maxWeakCount>2</maxWeakCount>
      <stageThreshold>-2.5907436013221741e-01</stageThreshold>
      <weakClassifiers>
        <_>
          <internalNodes>
            0 -1 1 -676333569 -536813257 -925398761 -371535433
            -795090225 -531922927 -214970537 -12586121</internalNodes>
          <leafValues>
            -9.5238095521926880e-01 7.0984458923339844e-01</leafValues></_>
        <_>
          <internalNodes>
            0 -1 5 -36569089 -44994849 -945958569 -44445201 -683958833
            -790390033 -215367509 -1862270977</internalNodes>
          <leafValues>
            -9.5595812797546387e-01 6.9330662488937378e-01</leafValues></_></weakClassifiers></_>
    <!-- stage 6 -->
    <_>
      <maxWeakCount>3</maxWeakCount>
      <stageThreshold>-1.1459463834762573e+00</stageThreshold>
      <weakClassifiers>
        <_>
          <internalNodes>
            0 -1 7 -210239489 -267652981 -1840526412 -138157502
            -1856167672 1531062291 -74864193 -2097153</internalNodes>
          <leafValues>
            -9.3247961997985840e-01 7.4931877851486206e-01</leafValues></_>
        <_>
          <internalNodes>
            0 -1 6 -184159329 -12463201 -517223075 -38993397 -1341537585
            -11630071 -72679633 -2130053</internalNodes>
          <leafValues>
            -8.8517963886260986e-01 7.6182514429092407e-01</leafValues></_>
        <_>
          <internalNodes>
            0 -1 13 -673187849 -169904737 1393480471 -938485417
            -663903761 -510001775 -169609557 -1057292289</internalNodes>
          <leafValues>
            -9.8406851291656494e-01 6.7171287536621094e-01</leafValues></_></weakClassifiers></_></stages>
  <features>
    <_>
      <rect>
        0 0 2 4</rect></_>
    <_>
      <rect>
        0 0 2 6</rect></_>
    <_>
      <rect>
        0 0 3 3</rect></_>
    <_>
      <rect>
        0 0 8 8</rect></_>
    <_>
      <rect>
        2 0 3 1</rect></_>
    <_>
      <rect>
        3 3 7 6</rect></_>
    <_>
      <rect>
        5 7 3 2</rect></_>
    <_>
      <rect>
        7 10 1 4</rect></_>
    <_>
      <rect>
        8 10 2 2</rect></_>
    <_>
      <rect>
        9 10 2 1</rect></_>
    <_>
      <rect>
        11 5 3 3</rect></_>
    <_>
      <rect>
        11 10 1 2</rect></_>
    <_>
      <rect>
        16 0 2 1</rect></_>
    <_>
      <rect>
        18 2 2 4</rect></_></features></cascade>
</opencv_storage>
